{
    "type": "NeuralNetwork",
    "sizes": [
        1,
        4,
        192
    ],
    "layers": [
        {
            "weights": [],
            "biases": []
        },
        {
            "weights": [
                [
                    10.193243026733398
                ],
                [
                    -0.8178203701972961
                ],
                [
                    -8.704224586486816
                ],
                [
                    9.027098655700684
                ]
            ],
            "biases": [
                -8.465004920959473,
                -2.8878018856048584,
                1.4793277978897095,
                -4.507736682891846
            ]
        },
        {
            "weights": [
                [
                    -0.08108580112457275,
                    -1.138636827468872,
                    -0.13723208010196686,
                    0.06304004788398743
                ],
                [
                    -0.15600301325321198,
                    -1.071148157119751,
                    -0.21178366243839264,
                    0.04973652586340904
                ],
                [
                    -0.10033690184354782,
                    -1.0597416162490845,
                    -0.23735640943050385,
                    -0.029089173302054405
                ],
                [
                    -0.12341965734958649,
                    -0.9123730659484863,
                    -0.13515371084213257,
                    0.07943038642406464
                ],
                [
                    -0.09780420362949371,
                    -1.0453461408615112,
                    -0.1935052126646042,
                    -0.030149035155773163
                ],
                [
                    -0.07055812329053879,
                    -1.1471046209335327,
                    -0.08720993995666504,
                    0.030986180528998375
                ],
                [
                    -0.06224299222230911,
                    -0.9422921538352966,
                    -0.12800492346286774,
                    0.026659386232495308
                ],
                [
                    -0.13587167859077454,
                    -1.0972923040390015,
                    -0.16827960312366486,
                    0.04309042543172836
                ],
                [
                    -0.17060646414756775,
                    -1.0439633131027222,
                    -0.25806906819343567,
                    0.05657064542174339
                ],
                [
                    -0.08715460449457169,
                    -1.0293760299682617,
                    -0.17802591621875763,
                    0.035953689366579056
                ],
                [
                    -0.025157231837511063,
                    -0.9838700294494629,
                    -0.15484610199928284,
                    -0.022927675396203995
                ],
                [
                    -0.08763567358255386,
                    -1.12515127658844,
                    -0.19984793663024902,
                    0.04345822334289551
                ],
                [
                    -0.08942010998725891,
                    -1.0216960906982422,
                    -0.07941947132349014,
                    0.04721001163125038
                ],
                [
                    -0.09191780537366867,
                    -0.9553419947624207,
                    -0.1491328626871109,
                    0.07362502068281174
                ],
                [
                    -0.05978989228606224,
                    -1.1024683713912964,
                    -0.04987518861889839,
                    0.10194145888090134
                ],
                [
                    -0.11298291385173798,
                    -1.06954824924469,
                    -0.22075895965099335,
                    0.003487442620098591
                ],
                [
                    -0.09240356832742691,
                    -0.9762022495269775,
                    -0.24853332340717316,
                    -0.07029763609170914
                ],
                [
                    -0.1682853251695633,
                    -1.065002202987671,
                    -0.1916530430316925,
                    0.07839580625295639
                ],
                [
                    -0.16613492369651794,
                    -1.0658457279205322,
                    -0.1911475658416748,
                    0.08429005742073059
                ],
                [
                    -0.07733092457056046,
                    -0.9455413222312927,
                    -0.2121255248785019,
                    0.01439596712589264
                ],
                [
                    -0.0941140353679657,
                    -1.0572805404663086,
                    -0.20313383638858795,
                    -0.010754801332950592
                ],
                [
                    -0.06916185468435287,
                    -1.105172038078308,
                    -0.13768772780895233,
                    0.021126309409737587
                ],
                [
                    -0.1197892278432846,
                    -1.1762079000473022,
                    -0.19219407439231873,
                    0.05309412255883217
                ],
                [
                    -0.09619559347629547,
                    -0.9333091974258423,
                    -0.18958081305027008,
                    0.04960668459534645
                ],
                [
                    -0.08384799212217331,
                    -1.0117902755737305,
                    -0.19664591550827026,
                    0.001642051967792213
                ],
                [
                    -0.05505336821079254,
                    -1.197791576385498,
                    -0.146511971950531,
                    -0.023526161909103394
                ],
                [
                    -0.11127341538667679,
                    -0.9765673279762268,
                    -0.24598778784275055,
                    -0.039118364453315735
                ],
                [
                    -1.0939687490463257,
                    -0.4009498953819275,
                    1.1747992038726807,
                    1.1802252531051636
                ],
                [
                    -1.0935167074203491,
                    -0.33641156554222107,
                    1.1743541955947876,
                    1.1798176765441895
                ],
                [
                    -1.0938142538070679,
                    -0.29678505659103394,
                    1.1745285987854004,
                    1.1801819801330566
                ],
                [
                    0.08983208239078522,
                    -0.9428067803382874,
                    1.155816912651062,
                    1.1881481409072876
                ],
                [
                    0.08872363716363907,
                    -1.1159244775772095,
                    1.156679630279541,
                    1.1889053583145142
                ],
                [
                    0.08675387501716614,
                    -0.9673680067062378,
                    1.1555395126342773,
                    1.1887108087539673
                ],
                [
                    1.098738431930542,
                    -0.5043095946311951,
                    -0.0013951066648587584,
                    -0.04104970023036003
                ],
                [
                    1.0985016822814941,
                    -0.6055182218551636,
                    -0.0012513678520917892,
                    -0.04111475497484207
                ],
                [
                    1.0988030433654785,
                    -0.49186375737190247,
                    -0.0014128908514976501,
                    -0.041043348610401154
                ],
                [
                    1.098726511001587,
                    -0.5311134457588196,
                    -0.0013571304734796286,
                    -0.04106931388378143
                ],
                [
                    1.098567008972168,
                    -0.5664735436439514,
                    -0.0013067381223663688,
                    -0.041088495403528214
                ],
                [
                    1.0988608598709106,
                    -0.617094874382019,
                    -0.0012359810061752796,
                    -0.041139811277389526
                ],
                [
                    0.09432578831911087,
                    -1.1001604795455933,
                    1.1564507484436035,
                    1.1871106624603271
                ],
                [
                    0.08819196373224258,
                    -1.0096274614334106,
                    1.1582094430923462,
                    1.190850019454956
                ],
                [
                    0.08472989499568939,
                    -1.0607271194458008,
                    1.156557321548462,
                    1.190093994140625
                ],
                [
                    -1.0941418409347534,
                    -0.3624116778373718,
                    1.1748735904693604,
                    1.1804550886154175
                ],
                [
                    -1.0937587022781372,
                    -0.36120110750198364,
                    1.1745755672454834,
                    1.1800470352172852
                ],
                [
                    -1.0933178663253784,
                    -0.3250454068183899,
                    1.1741756200790405,
                    1.1796177625656128
                ],
                [
                    -0.1045021340250969,
                    -1.0331344604492188,
                    -0.2389707863330841,
                    -0.030259162187576294
                ],
                [
                    -0.07156506180763245,
                    -1.097609519958496,
                    -0.22298091650009155,
                    -0.015048042871057987
                ],
                [
                    -0.05953243374824524,
                    -1.1157480478286743,
                    -0.059059157967567444,
                    0.10020656883716583
                ],
                [
                    -0.09537433087825775,
                    -1.1686291694641113,
                    -0.20977726578712463,
                    -0.002619208302348852
                ],
                [
                    -0.044239964336156845,
                    -1.0829805135726929,
                    -0.06790466606616974,
                    0.030052414163947105
                ],
                [
                    -0.013178798370063305,
                    -1.0640991926193237,
                    -0.10173260420560837,
                    -0.015847189351916313
                ],
                [
                    0.0971209928393364,
                    -0.9628420472145081,
                    1.1586730480194092,
                    1.1888889074325562
                ],
                [
                    0.10404257476329803,
                    -0.8242483735084534,
                    1.1570751667022705,
                    1.1857421398162842
                ],
                [
                    0.08310628682374954,
                    -0.9081311225891113,
                    1.1564340591430664,
                    1.190830945968628
                ],
                [
                    -1.1300151348114014,
                    0.08123514801263809,
                    -1.212547779083252,
                    -0.05879673361778259
                ],
                [
                    -1.1305044889450073,
                    0.13471640646457672,
                    -1.2124955654144287,
                    -0.05813830345869064
                ],
                [
                    -1.1333746910095215,
                    0.023442545905709267,
                    -1.207657814025879,
                    -0.051043491810560226
                ],
                [
                    1.1225157976150513,
                    -1.218460202217102,
                    0.41899117827415466,
                    -1.1088496446609497
                ],
                [
                    1.1227306127548218,
                    -1.0981872081756592,
                    0.3982246220111847,
                    -1.1108677387237549
                ],
                [
                    1.1226379871368408,
                    -0.9984530210494995,
                    0.4171569049358368,
                    -1.1088281869888306
                ],
                [
                    1.1228290796279907,
                    -1.0595496892929077,
                    0.3917284607887268,
                    -1.1115448474884033
                ],
                [
                    1.123053789138794,
                    -1.1854755878448486,
                    0.39132311940193176,
                    -1.1119611263275146
                ],
                [
                    1.1228739023208618,
                    -0.9719791412353516,
                    0.3718057870864868,
                    -1.1134989261627197
                ],
                [
                    -1.1314789056777954,
                    0.030256645753979683,
                    -1.210910439491272,
                    -0.05594979226589203
                ],
                [
                    -1.1322975158691406,
                    -0.08333344012498856,
                    -1.2098058462142944,
                    -0.05439048632979393
                ],
                [
                    -1.1308473348617554,
                    0.08352166414260864,
                    -1.211399793624878,
                    -0.05689474940299988
                ],
                [
                    0.08371476829051971,
                    -0.9211037158966064,
                    1.1592978239059448,
                    1.1934906244277954
                ],
                [
                    0.10993565618991852,
                    -0.9927510023117065,
                    1.1596206426620483,
                    1.1863476037979126
                ],
                [
                    0.08401203900575638,
                    -1.0276844501495361,
                    1.1564598083496094,
                    1.1902928352355957
                ],
                [
                    -0.06935834139585495,
                    -1.1126703023910522,
                    -0.09272100776433945,
                    0.002667423104867339
                ],
                [
                    -0.025522282347083092,
                    -1.1310988664627075,
                    -0.16940821707248688,
                    -0.031199971213936806
                ],
                [
                    -0.08012864738702774,
                    -1.0769647359848022,
                    -0.07625751942396164,
                    0.07272378355264664
                ],
                [
                    -0.05556531623005867,
                    -0.9664709568023682,
                    -0.13773490488529205,
                    0.013461225666105747
                ],
                [
                    -0.05581227317452431,
                    -1.054007887840271,
                    -0.22941185534000397,
                    -0.0390576533973217
                ],
                [
                    -0.14725087583065033,
                    -1.0958900451660156,
                    -0.17138440907001495,
                    0.06324420869350433
                ],
                [
                    0.4466593861579895,
                    -0.7937667965888977,
                    0.06447891891002655,
                    1.2042533159255981
                ],
                [
                    0.4476574957370758,
                    -0.7270179390907288,
                    0.06430145353078842,
                    1.2028441429138184
                ],
                [
                    0.44861748814582825,
                    -0.8742822408676147,
                    0.0645986795425415,
                    1.2042880058288574
                ],
                [
                    1.1231809854507446,
                    -0.9668577909469604,
                    0.3517415225505829,
                    -1.1159300804138184
                ],
                [
                    1.1227513551712036,
                    -1.0528342723846436,
                    0.40194615721702576,
                    -1.110459804534912
                ],
                [
                    1.1227737665176392,
                    -1.1421376466751099,
                    0.39386165142059326,
                    -1.11139714717865
                ],
                [
                    -1.0860923528671265,
                    -0.6371010541915894,
                    0.018810944631695747,
                    -0.5120943188667297
                ],
                [
                    -1.0851753950119019,
                    -0.6890937089920044,
                    -0.06588518619537354,
                    -0.5345126390457153
                ],
                [
                    -1.0807772874832153,
                    -0.7397249937057495,
                    -0.01714303344488144,
                    -0.5770626068115234
                ],
                [
                    -1.0853101015090942,
                    -0.5947279930114746,
                    -0.06010265648365021,
                    -0.5309894680976868
                ],
                [
                    -1.0859383344650269,
                    -0.6989798545837402,
                    -0.027772139757871628,
                    -0.5206098556518555
                ],
                [
                    -1.0792903900146484,
                    -0.7132234573364258,
                    0.05282161012291908,
                    -0.5881865620613098
                ],
                [
                    1.1231541633605957,
                    -1.0631917715072632,
                    0.3425244688987732,
                    -1.1170761585235596
                ],
                [
                    1.1229687929153442,
                    -1.01723313331604,
                    0.3447657525539398,
                    -1.1165906190872192
                ],
                [
                    1.1232069730758667,
                    -0.8991048336029053,
                    0.3418095111846924,
                    -1.116974115371704
                ],
                [
                    0.4556635022163391,
                    -0.9551803469657898,
                    0.06463887542486191,
                    1.202898621559143
                ],
                [
                    0.4518113434314728,
                    -0.8056628704071045,
                    0.06458204239606857,
                    1.2057313919067383
                ],
                [
                    0.4519193172454834,
                    -0.713860809803009,
                    0.06420687586069107,
                    1.2015061378479004
                ],
                [
                    -0.08723272383213043,
                    -0.9296714067459106,
                    -0.20290561020374298,
                    -0.041992656886577606
                ],
                [
                    -0.07479611039161682,
                    -1.1871782541275024,
                    -0.10006098449230194,
                    0.04067197069525719
                ],
                [
                    -0.09609796106815338,
                    -1.1228530406951904,
                    -0.05090166628360748,
                    0.07435694336891174
                ],
                [
                    -0.06994564831256866,
                    -0.9630135893821716,
                    -0.09399094432592392,
                    0.07340238988399506
                ],
                [
                    0.0026139961555600166,
                    -0.9146114587783813,
                    -0.050296153873205185,
                    -0.0004076025797985494
                ],
                [
                    -0.09331032633781433,
                    -1.1449456214904785,
                    -0.2060249298810959,
                    0.015811737626791
                ],
                [
                    0.4533860981464386,
                    -0.9120912551879883,
                    0.06396736949682236,
                    1.19229257106781
                ],
                [
                    0.45148852467536926,
                    -0.7283185720443726,
                    0.06472012400627136,
                    1.210126280784607
                ],
                [
                    0.4479398727416992,
                    -0.7724282145500183,
                    0.06394927203655243,
                    1.1955432891845703
                ],
                [
                    1.1233946084976196,
                    -0.9837324619293213,
                    0.3405948877334595,
                    -1.1174006462097168
                ],
                [
                    1.1225675344467163,
                    -1.1615415811538696,
                    0.41426223516464233,
                    -1.1092634201049805
                ],
                [
                    1.1226863861083984,
                    -1.051898717880249,
                    0.4092939496040344,
                    -1.1096911430358887
                ],
                [
                    -1.0865771770477295,
                    -0.4909461736679077,
                    -0.05940418690443039,
                    -0.5175445079803467
                ],
                [
                    -1.0808563232421875,
                    -0.7435890436172485,
                    0.09831270575523376,
                    -0.5650565028190613
                ],
                [
                    -1.0835202932357788,
                    -0.5881240963935852,
                    -0.0255589559674263,
                    -0.5453158617019653
                ],
                [
                    -1.0840470790863037,
                    -0.7080286741256714,
                    0.03833307698369026,
                    -0.5335503816604614
                ],
                [
                    -1.0794315338134766,
                    -0.6292611360549927,
                    0.04163183644413948,
                    -0.5863017439842224
                ],
                [
                    -1.0826371908187866,
                    -0.6223646402359009,
                    0.09123125672340393,
                    -0.5436148047447205
                ],
                [
                    1.1229864358901978,
                    -1.0149075984954834,
                    0.34333205223083496,
                    -1.116764783859253
                ],
                [
                    1.1228183507919312,
                    -0.9451746940612793,
                    0.4017595052719116,
                    -1.1103885173797607
                ],
                [
                    1.1230369806289673,
                    -0.9749138951301575,
                    0.36760222911834717,
                    -1.1140931844711304
                ],
                [
                    0.45083320140838623,
                    -0.8033727407455444,
                    0.06372100114822388,
                    1.1907747983932495
                ],
                [
                    0.4576374292373657,
                    -0.9078640341758728,
                    0.064452163875103,
                    1.2008293867111206
                ],
                [
                    0.45298030972480774,
                    -0.8694479465484619,
                    0.06387959420681,
                    1.1918487548828125
                ],
                [
                    0.0023035958874970675,
                    -1.0198955535888672,
                    -0.0973035916686058,
                    -0.028261898085474968
                ],
                [
                    -0.04417239502072334,
                    -0.9902980923652649,
                    -0.15529243648052216,
                    -0.04107719287276268
                ],
                [
                    -0.051476288586854935,
                    -1.0105406045913696,
                    -0.2019796520471573,
                    -0.02970804274082184
                ],
                [
                    -0.04539686068892479,
                    -1.1600970029830933,
                    -0.13160865008831024,
                    -0.006112517789006233
                ],
                [
                    -0.11543071269989014,
                    -1.0503374338150024,
                    -0.25421208143234253,
                    -0.051251351833343506
                ],
                [
                    -0.07892197370529175,
                    -1.1595503091812134,
                    -0.20683099329471588,
                    -0.055344611406326294
                ],
                [
                    1.057775616645813,
                    -0.8993701934814453,
                    1.1132572889328003,
                    0.02907276526093483
                ],
                [
                    1.0575411319732666,
                    -0.9454277753829956,
                    1.1127873659133911,
                    0.029017383232712746
                ],
                [
                    1.057416319847107,
                    -0.8993654251098633,
                    1.1123757362365723,
                    0.029037069529294968
                ],
                [
                    -1.130552887916565,
                    0.12294133007526398,
                    -1.212506651878357,
                    -0.05813105031847954
                ],
                [
                    -1.1327917575836182,
                    -0.07823115587234497,
                    -1.208815574645996,
                    -0.05295960605144501
                ],
                [
                    -1.132238745689392,
                    0.039166878908872604,
                    -1.208631157875061,
                    -0.05303081125020981
                ],
                [
                    -0.08450568467378616,
                    -1.1376879215240479,
                    -0.09817223250865936,
                    0.06477896869182587
                ],
                [
                    -0.02984456531703472,
                    -0.9429977536201477,
                    -0.07891883701086044,
                    -0.0048308055847883224
                ],
                [
                    -0.08064581453800201,
                    -1.0893220901489258,
                    -0.15223488211631775,
                    -0.01054841373115778
                ],
                [
                    -0.09008026123046875,
                    -1.0994120836257935,
                    -0.17948468029499054,
                    0.010221288539469242
                ],
                [
                    -0.060347773134708405,
                    -1.0187269449234009,
                    -0.07464194297790527,
                    0.0443977452814579
                ],
                [
                    -0.07840375602245331,
                    -1.0814088582992554,
                    -0.17575331032276154,
                    -0.0365736223757267
                ],
                [
                    -1.1296738386154175,
                    0.201629176735878,
                    -1.2128335237503052,
                    -0.05909973755478859
                ],
                [
                    -1.1319341659545898,
                    0.006145636085420847,
                    -1.211173415184021,
                    -0.05581602826714516
                ],
                [
                    -1.13125741481781,
                    -0.04314759001135826,
                    -1.2102205753326416,
                    -0.055694811046123505
                ],
                [
                    1.0571659803390503,
                    -0.8693594932556152,
                    1.1117072105407715,
                    0.02903406135737896
                ],
                [
                    1.0573673248291016,
                    -0.8194248080253601,
                    1.1120822429656982,
                    0.029088495299220085
                ],
                [
                    1.0580083131790161,
                    -0.9296079277992249,
                    1.1138964891433716,
                    0.029074687510728836
                ],
                [
                    -0.05855167284607887,
                    -1.2073906660079956,
                    -0.06334788352251053,
                    0.08479247987270355
                ],
                [
                    -0.04073319584131241,
                    -1.1521186828613281,
                    -0.05961786210536957,
                    0.05148489400744438
                ],
                [
                    -0.032605890184640884,
                    -0.8962270021438599,
                    -0.11367803812026978,
                    0.003992048557847738
                ],
                [
                    -0.04031684249639511,
                    -0.9511329531669617,
                    -0.13625174760818481,
                    -0.039566583931446075
                ],
                [
                    -0.07119275629520416,
                    -1.0516852140426636,
                    -0.10038267821073532,
                    0.04376491531729698
                ],
                [
                    -0.08489833772182465,
                    -1.0408990383148193,
                    -0.1242418959736824,
                    0.016528192907571793
                ],
                [
                    -0.0035762074403464794,
                    -0.23356598615646362,
                    1.134308099746704,
                    0.07013791799545288
                ],
                [
                    -0.003632474923506379,
                    -0.3609926700592041,
                    1.1352862119674683,
                    0.07009099423885345
                ],
                [
                    -0.003670646343380213,
                    -0.452216774225235,
                    1.1347600221633911,
                    0.06998661160469055
                ],
                [
                    1.057579755783081,
                    -0.7688629627227783,
                    1.1124852895736694,
                    0.029144758358597755
                ],
                [
                    1.057202696800232,
                    -0.7854080200195312,
                    1.1116076707839966,
                    0.029096389189362526
                ],
                [
                    1.0577934980392456,
                    -0.8200161457061768,
                    1.1131227016448975,
                    0.029130004346370697
                ],
                [
                    1.0985630750656128,
                    -0.5485691428184509,
                    -0.001332086743786931,
                    -0.04107492417097092
                ],
                [
                    1.0985773801803589,
                    -0.6490024924278259,
                    -0.0011901240795850754,
                    -0.04115083068609238
                ],
                [
                    1.0985748767852783,
                    -0.5760080218315125,
                    -0.0012932796962559223,
                    -0.04109601303935051
                ],
                [
                    1.0985170602798462,
                    -0.47014498710632324,
                    -0.001442758017219603,
                    -0.04101404920220375
                ],
                [
                    1.0989325046539307,
                    -0.5844791531562805,
                    -0.0012822445714846253,
                    -0.04111862927675247
                ],
                [
                    1.0988049507141113,
                    -0.5849392414093018,
                    -0.0012812751810997725,
                    -0.041113149374723434
                ],
                [
                    1.0571458339691162,
                    -0.8284356594085693,
                    1.11156165599823,
                    0.02906046248972416
                ],
                [
                    1.057468056678772,
                    -1.0232665538787842,
                    1.1127806901931763,
                    0.02895548939704895
                ],
                [
                    1.0577099323272705,
                    -0.8815863132476807,
                    1.1130564212799072,
                    0.029078643769025803
                ],
                [
                    -0.003573064925149083,
                    -0.223823681473732,
                    1.1349126100540161,
                    0.07018066942691803
                ],
                [
                    -0.003646820317953825,
                    -0.3973011076450348,
                    1.1345781087875366,
                    0.07002070546150208
                ],
                [
                    -0.003667636774480343,
                    -0.4426451325416565,
                    1.1354172229766846,
                    0.07003230601549149
                ],
                [
                    -0.12012597173452377,
                    -1.087392807006836,
                    -0.16909535229206085,
                    0.021047411486506462
                ],
                [
                    -0.07021736353635788,
                    -1.0104281902313232,
                    -0.061426229774951935,
                    0.07963765412569046
                ],
                [
                    -0.03207726776599884,
                    -1.0953192710876465,
                    -0.07352572679519653,
                    0.0057465932331979275
                ],
                [
                    -0.1343715637922287,
                    -1.146735668182373,
                    -0.13735967874526978,
                    0.07719509303569794
                ],
                [
                    -0.09572601318359375,
                    -1.0994267463684082,
                    -0.18385528028011322,
                    0.03802384063601494
                ],
                [
                    -0.0049829320050776005,
                    -1.2014398574829102,
                    -0.041431959718465805,
                    0.008547082543373108
                ],
                [
                    -0.04895670711994171,
                    -0.8926644325256348,
                    -0.19610410928726196,
                    -0.06244964152574539
                ],
                [
                    -0.10254476964473724,
                    -1.1829988956451416,
                    -0.1563684046268463,
                    0.07830779254436493
                ],
                [
                    -0.10012009739875793,
                    -1.1526298522949219,
                    -0.0525599867105484,
                    0.09917991608381271
                ],
                [
                    -0.0984097346663475,
                    -1.0655831098556519,
                    -0.1254323571920395,
                    0.03406598046422005
                ],
                [
                    -0.08640985935926437,
                    -1.0762710571289062,
                    -0.1298205852508545,
                    0.03559085354208946
                ],
                [
                    -0.06523171067237854,
                    -1.0995259284973145,
                    -0.22274114191532135,
                    -0.03568045422434807
                ],
                [
                    -0.09824501723051071,
                    -1.1613160371780396,
                    -0.10358606278896332,
                    0.08445188403129578
                ],
                [
                    -0.1397607922554016,
                    -1.0849506855010986,
                    -0.2590644359588623,
                    -0.0014449069276452065
                ],
                [
                    -0.10586253553628922,
                    -0.9753459095954895,
                    -0.14571771025657654,
                    0.054957978427410126
                ],
                [
                    -0.09799212217330933,
                    -0.9732697606086731,
                    -0.23124203085899353,
                    -0.008647331967949867
                ],
                [
                    -0.06472338736057281,
                    -1.176172137260437,
                    -0.1276615858078003,
                    0.037023235112428665
                ],
                [
                    -0.08605609089136124,
                    -1.0820379257202148,
                    -0.048670824617147446,
                    0.07069351524114609
                ],
                [
                    -0.024756914004683495,
                    -0.9496615529060364,
                    -0.10893435776233673,
                    -0.014117635786533356
                ],
                [
                    -0.12961024045944214,
                    -1.0658257007598877,
                    -0.16408707201480865,
                    0.04735804721713066
                ],
                [
                    -0.010966362431645393,
                    -1.0345511436462402,
                    -0.08194732666015625,
                    -0.0008013625629246235
                ],
                [
                    -0.045405928045511246,
                    -1.0716466903686523,
                    -0.08485457301139832,
                    0.03708765655755997
                ],
                [
                    -0.062136825174093246,
                    -1.02566397190094,
                    -0.0996493324637413,
                    0.00022562133381143212
                ],
                [
                    -0.08826607465744019,
                    -1.0095678567886353,
                    -0.10119818150997162,
                    0.06940103322267532
                ],
                [
                    -0.0385378822684288,
                    -1.064210295677185,
                    -0.02419872023165226,
                    0.08670461177825928
                ],
                [
                    0.016535714268684387,
                    -1.0005141496658325,
                    -0.055548422038555145,
                    -0.013824691995978355
                ],
                [
                    -0.08183564990758896,
                    -0.9991250038146973,
                    -0.13500747084617615,
                    0.002825950738042593
                ]
            ],
            "biases": [
                1.2865822315216064,
                1.3004673719406128,
                1.3123388290405273,
                1.4820692539215088,
                1.3148401975631714,
                1.2585738897323608,
                1.4683403968811035,
                1.2711466550827026,
                1.3443825244903564,
                1.381310224533081,
                1.4336339235305786,
                1.3025070428848267,
                1.3755022287368774,
                1.4700461626052856,
                1.3556489944458008,
                1.3089314699172974,
                1.3779200315475464,
                1.3097167015075684,
                1.315704107284546,
                1.4709171056747437,
                1.3204498291015625,
                1.2995212078094482,
                1.2252304553985596,
                1.4840881824493408,
                1.3817477226257324,
                1.1959022283554077,
                1.3806272745132446,
                0.6197671294212341,
                0.6837655901908875,
                0.7234338521957397,
                1.253513216972351,
                1.0813555717468262,
                1.2262208461761475,
                0.5570991039276123,
                0.45608487725257874,
                0.5695552825927734,
                0.5303955674171448,
                0.49502962827682495,
                0.44490206241607666,
                1.1008483171463013,
                1.1898480653762817,
                1.1333212852478027,
                0.6582660675048828,
                0.6592251658439636,
                0.6949523091316223,
                1.3345041275024414,
                1.306797981262207,
                1.3422306776046753,
                1.2182294130325317,
                1.3437199592590332,
                1.3645918369293213,
                1.2440439462661743,
                1.384812593460083,
                1.2842992544174194,
                -0.013866798020899296,
                0.03940390422940254,
                -0.07129891216754913,
                1.2532148361206055,
                1.354507327079773,
                1.4710246324539185,
                1.3872755765914917,
                1.261791467666626,
                1.4565625190734863,
                -0.0646185576915741,
                -0.17775748670101166,
                -0.011555677279829979,
                1.276918888092041,
                1.225614070892334,
                1.1656193733215332,
                1.2826690673828125,
                1.2860901355743408,
                1.3434183597564697,
                1.4435347318649292,
                1.3487144708633423,
                1.2783095836639404,
                0.8033515810966492,
                0.869432270526886,
                0.725220263004303,
                1.4441046714782715,
                1.4031355381011963,
                1.3068069219589233,
                0.9122555255889893,
                0.7971854209899902,
                0.8337658643722534,
                0.893823504447937,
                0.8122392892837524,
                0.9399237632751465,
                1.3397719860076904,
                1.3872640132904053,
                1.502759337425232,
                0.6504412293434143,
                0.7980713248252869,
                0.8855141997337341,
                1.4320024251937866,
                1.2209687232971191,
                1.286289095878601,
                1.4680355787277222,
                1.5380419492721558,
                1.2566890716552734,
                0.6809545755386353,
                0.8788957595825195,
                0.8175815343856812,
                1.4176535606384277,
                1.305711030960083,
                1.4106570482254028,
                0.985926628112793,
                0.9334301948547363,
                0.9476041793823242,
                0.880466103553772,
                1.010843276977539,
                1.027661919593811,
                1.388325572013855,
                1.510381817817688,
                1.4501211643218994,
                0.7851458191871643,
                0.6975323557853699,
                0.722561776638031,
                1.416056752204895,
                1.4008747339248657,
                1.3917406797409058,
                1.2485605478286743,
                1.2997353076934814,
                1.207131028175354,
                1.1759591102600098,
                1.1293625831604004,
                1.1747857332229614,
                0.02767026796936989,
                -0.17263837158679962,
                -0.05564701929688454,
                1.2764980792999268,
                1.477236032485962,
                1.2891488075256348,
                1.2898192405700684,
                1.4007370471954346,
                1.2887988090515137,
                0.1060783639550209,
                -0.08866854757070541,
                -0.13770850002765656,
                1.2038342952728271,
                1.2541753053665161,
                1.146634578704834,
                1.2417398691177368,
                1.2906253337860107,
                1.5239782333374023,
                1.4430296421051025,
                1.3595411777496338,
                1.344836950302124,
                0.8346360921859741,
                0.708439290523529,
                0.6169408559799194,
                1.3051787614822388,
                1.2874890565872192,
                1.2549781799316406,
                0.512855589389801,
                0.412854939699173,
                0.4855424165725708,
                0.5909082293510437,
                0.4774506092071533,
                0.47686973214149475,
                1.2444852590560913,
                1.0516679286956787,
                1.1934397220611572,
                0.8449240922927856,
                0.6715520620346069,
                0.627108097076416,
                1.2797778844833374,
                1.4218636751174927,
                1.3301650285720825,
                1.2397078275680542,
                1.3079556226730347,
                1.2541810274124146,
                1.4872571229934692,
                1.2414547204971313,
                1.2675421237945557,
                1.3194080591201782,
                1.3207296133041382,
                1.2947173118591309,
                1.2557514905929565,
                1.2832131385803223,
                1.4204449653625488,
                1.4131321907043457,
                1.242547631263733,
                1.3327316045761108,
                1.4681828022003174,
                1.3093689680099487,
                1.4036372900009155,
                1.3574750423431396,
                1.370916485786438,
                1.4032244682312012,
                1.402897596359253,
                1.458872675895691,
                1.382061243057251
            ]
        }
    ],
    "inputLookup": null,
    "inputLookupLength": 0,
    "outputLookup": {
        "0": 0,
        "1": 1,
        "2": 2,
        "3": 3,
        "4": 4,
        "5": 5,
        "6": 6,
        "7": 7,
        "8": 8,
        "9": 9,
        "10": 10,
        "11": 11,
        "12": 12,
        "13": 13,
        "14": 14,
        "15": 15,
        "16": 16,
        "17": 17,
        "18": 18,
        "19": 19,
        "20": 20,
        "21": 21,
        "22": 22,
        "23": 23,
        "24": 24,
        "25": 25,
        "26": 26,
        "27": 27,
        "28": 28,
        "29": 29,
        "30": 30,
        "31": 31,
        "32": 32,
        "33": 33,
        "34": 34,
        "35": 35,
        "36": 36,
        "37": 37,
        "38": 38,
        "39": 39,
        "40": 40,
        "41": 41,
        "42": 42,
        "43": 43,
        "44": 44,
        "45": 45,
        "46": 46,
        "47": 47,
        "48": 48,
        "49": 49,
        "50": 50,
        "51": 51,
        "52": 52,
        "53": 53,
        "54": 54,
        "55": 55,
        "56": 56,
        "57": 57,
        "58": 58,
        "59": 59,
        "60": 60,
        "61": 61,
        "62": 62,
        "63": 63,
        "64": 64,
        "65": 65,
        "66": 66,
        "67": 67,
        "68": 68,
        "69": 69,
        "70": 70,
        "71": 71,
        "72": 72,
        "73": 73,
        "74": 74,
        "75": 75,
        "76": 76,
        "77": 77,
        "78": 78,
        "79": 79,
        "80": 80,
        "81": 81,
        "82": 82,
        "83": 83,
        "84": 84,
        "85": 85,
        "86": 86,
        "87": 87,
        "88": 88,
        "89": 89,
        "90": 90,
        "91": 91,
        "92": 92,
        "93": 93,
        "94": 94,
        "95": 95,
        "96": 96,
        "97": 97,
        "98": 98,
        "99": 99,
        "100": 100,
        "101": 101,
        "102": 102,
        "103": 103,
        "104": 104,
        "105": 105,
        "106": 106,
        "107": 107,
        "108": 108,
        "109": 109,
        "110": 110,
        "111": 111,
        "112": 112,
        "113": 113,
        "114": 114,
        "115": 115,
        "116": 116,
        "117": 117,
        "118": 118,
        "119": 119,
        "120": 120,
        "121": 121,
        "122": 122,
        "123": 123,
        "124": 124,
        "125": 125,
        "126": 126,
        "127": 127,
        "128": 128,
        "129": 129,
        "130": 130,
        "131": 131,
        "132": 132,
        "133": 133,
        "134": 134,
        "135": 135,
        "136": 136,
        "137": 137,
        "138": 138,
        "139": 139,
        "140": 140,
        "141": 141,
        "142": 142,
        "143": 143,
        "144": 144,
        "145": 145,
        "146": 146,
        "147": 147,
        "148": 148,
        "149": 149,
        "150": 150,
        "151": 151,
        "152": 152,
        "153": 153,
        "154": 154,
        "155": 155,
        "156": 156,
        "157": 157,
        "158": 158,
        "159": 159,
        "160": 160,
        "161": 161,
        "162": 162,
        "163": 163,
        "164": 164,
        "165": 165,
        "166": 166,
        "167": 167,
        "168": 168,
        "169": 169,
        "170": 170,
        "171": 171,
        "172": 172,
        "173": 173,
        "174": 174,
        "175": 175,
        "176": 176,
        "177": 177,
        "178": 178,
        "179": 179,
        "180": 180,
        "181": 181,
        "182": 182,
        "183": 183,
        "184": 184,
        "185": 185,
        "186": 186,
        "187": 187,
        "188": 188,
        "189": 189,
        "190": 190,
        "191": 191
    },
    "outputLookupLength": 192,
    "options": {
        "inputSize": 0,
        "outputSize": 0,
        "binaryThresh": 0.5120860500000001,
        "leakyReluAlpha": 0.014827860000000002,
        "hiddenLayers": [
            4
        ],
        "activation": "tanh"
    },
    "trainOpts": {
        "activation": "tanh",
        "iterations": 50,
        "errorThresh": 0.00005,
        "log": false,
        "logPeriod": 10,
        "leakyReluAlpha": 0.014827860000000002,
        "learningRate": 0.3,
        "momentum": 0.1,
        "callbackPeriod": 1,
        "timeout": "Infinity",
        "praxis": null,
        "beta1": 0.9,
        "beta2": 0.999,
        "epsilon": 1e-8
    }
}